,bw,loglambda,contam_data,IFsupnorm
0,5.0,-8.0,2.0,1942.2678038341858
1,5.0,-8.0,6.0,617.5806739637349
2,5.0,-8.0,10.0,358.9946785163289
3,5.0,-8.0,14.0,253.722870346801
4,5.0,-8.0,18.0,199.94335604128565
5,5.0,-8.0,22.0,169.4637868928702
6,5.0,-8.0,26.0,151.4858497234749
7,5.0,-8.0,30.0,142.98215148317354
8,5.0,-8.0,34.0,144.57665163332985
9,5.0,-8.0,38.0,115.35109380309649
10,5.0,-8.0,42.0,91.18879980071053
11,5.0,-8.0,46.0,50.74184686791172
12,5.0,-8.0,50.0,14.121969563441294
13,5.0,-8.0,54.0,8.174878655228646
14,5.0,-8.0,58.0,12.362438412980907
15,5.0,-8.0,62.0,14.964440368385834
16,5.0,-8.0,66.0,18.810326581858284
17,5.0,-8.0,70.0,13.794647377889035
18,5.0,-8.0,74.0,8.822424485212272
19,5.0,-8.0,78.0,5.302351727830756
20,5.0,-8.0,82.0,5.288792548729676
21,5.0,-8.0,86.0,7.936979735396421
22,5.0,-8.0,90.0,10.386294447000266
23,5.0,-8.0,94.0,26.032926692257305
24,5.0,-8.0,98.0,61.010409751220514
25,5.0,-8.0,102.0,96.68948821529447
26,5.0,-8.0,106.0,129.09077343164142
27,5.0,-8.0,110.0,125.5018736532207
28,5.0,-8.0,114.0,121.5924468129006
29,5.0,-8.0,118.0,121.50660771424624
30,5.0,-8.0,122.0,121.7549059911316
31,5.0,-8.0,126.0,121.9798496004087
32,5.0,-8.0,130.0,122.13841195794666
33,5.0,-8.0,134.0,122.32547455284642
34,5.0,-8.0,138.0,122.48397522794355
35,5.0,-8.0,142.0,122.66187401506534
36,5.0,-8.0,146.0,122.8261244446869
37,5.0,-8.0,150.0,122.98519329513888
38,5.0,-8.0,154.0,123.1541360026893
39,5.0,-8.0,158.0,123.28716075024097
40,5.0,-8.0,162.0,123.46161711089111
41,5.0,-8.0,166.0,123.58210829401186
42,5.0,-8.0,170.0,123.74552211688778
43,5.0,-8.0,174.0,123.87537395601417
44,5.0,-8.0,178.0,124.00426917359377
45,5.0,-8.0,182.0,124.14511956174377
46,5.0,-8.0,186.0,124.23729248097138
47,5.0,-8.0,190.0,124.3902110984174
48,5.0,-8.0,194.0,124.49649029976662
49,5.0,-8.0,198.0,124.60975531485379
50,5.0,-8.0,202.0,124.73130728799589
51,5.0,-8.0,206.0,124.80801348391712
52,5.0,-8.0,210.0,124.94088344498655
53,5.0,-8.0,214.0,125.03508762336487
54,5.0,-8.0,218.0,125.12450117212958
55,5.0,-8.0,222.0,125.23701491914537
56,5.0,-8.0,226.0,125.3074910065653
57,5.0,-8.0,230.0,125.41310752551149
58,5.0,-8.0,234.0,125.5035295181959
59,5.0,-8.0,238.0,125.56278696927829
60,5.0,-8.0,242.0,125.67372860252166
61,5.0,-8.0,246.0,125.74475746200899
62,5.0,-8.0,250.0,125.81754047387818
63,5.0,-8.0,254.0,125.91032700045778
64,5.0,-8.0,258.0,125.96422335636726
65,5.0,-8.0,262.0,126.04945585151054
66,5.0,-8.0,266.0,126.12615026393341
67,5.0,-8.0,270.0,126.16482521201631
68,5.0,-8.0,274.0,126.2615301998069
69,5.0,-8.0,278.0,126.32388521070126
70,5.0,-8.0,282.0,126.36996013395172
71,5.0,-8.0,286.0,126.4562576072874
72,5.0,-8.0,290.0,126.50577394406092
73,5.0,-8.0,294.0,126.56157009092234
74,5.0,-8.0,298.0,126.63573043034542
75,5.0,-8.0,302.0,126.67370220672078
76,5.0,-8.0,306.0,126.7384949339807
77,5.0,-8.0,310.0,126.8017170478519
78,5.0,-8.0,314.0,126.82926747517872
79,5.0,-8.0,318.0,126.90239409304007
80,5.0,-8.0,322.0,126.95572222964005
81,5.0,-8.0,326.0,126.97546921271146
82,5.0,-8.0,330.0,127.0546856266658
83,5.0,-8.0,334.0,127.09903449142384
84,5.0,-8.0,338.0,127.12591683944545
85,5.0,-8.0,342.0,127.19658856792724
86,5.0,-8.0,346.0,127.23276359551406
87,5.0,-8.0,350.0,127.26627538823493
88,5.0,-8.0,354.0,127.32915665753444
89,5.0,-8.0,358.0,127.35787050949068
90,5.0,-8.0,362.0,127.39754553405622
91,5.0,-8.0,366.0,127.45330544094769
92,5.0,-8.0,370.0,127.47519153507952
93,5.0,-8.0,374.0,127.5205995233003
94,5.0,-8.0,378.0,127.56983420413277
95,5.0,-8.0,382.0,127.58545788917807
96,5.0,-8.0,386.0,127.63620113676673
97,5.0,-8.0,390.0,127.67944385963862
98,5.0,-8.0,394.0,127.68931170662255
99,5.0,-8.0,398.0,127.74502204126155
100,5.0,-8.0,402.0,127.78275162919805
101,5.0,-8.0,406.0,127.787319205026
0,5.0,-10.0,2.0,3281.227796249554
1,5.0,-10.0,6.0,1314.1312016678178
2,5.0,-10.0,10.0,1034.6011993768973
3,5.0,-10.0,14.0,951.7533369382089
4,5.0,-10.0,18.0,918.3167571633682
5,5.0,-10.0,22.0,902.8472180000023
6,5.0,-10.0,26.0,898.3708162590048
7,5.0,-10.0,30.0,912.7957421045725
8,5.0,-10.0,34.0,853.6570008100506
9,5.0,-10.0,38.0,437.7197519313121
10,5.0,-10.0,42.0,332.82385146760515
11,5.0,-10.0,46.0,94.8876497630472
12,5.0,-10.0,50.0,17.779900222820167
13,5.0,-10.0,54.0,11.570361363214253
14,5.0,-10.0,58.0,16.182412932658558
15,5.0,-10.0,62.0,18.164901062052042
16,5.0,-10.0,66.0,27.332774875979847
17,5.0,-10.0,70.0,18.462026177335787
18,5.0,-10.0,74.0,10.581337658476302
19,5.0,-10.0,78.0,6.3955566516913365
20,5.0,-10.0,82.0,6.750530591325266
21,5.0,-10.0,86.0,9.386221537040251
22,5.0,-10.0,90.0,13.462909650648868
23,5.0,-10.0,94.0,37.188021874496876
24,5.0,-10.0,98.0,226.32060798777792
25,5.0,-10.0,102.0,383.72608887007834
26,5.0,-10.0,106.0,702.559421860747
27,5.0,-10.0,110.0,671.3812325976946
28,5.0,-10.0,114.0,679.2834012456276
29,5.0,-10.0,118.0,717.9545780686127
30,5.0,-10.0,122.0,761.6017434776168
31,5.0,-10.0,126.0,800.2248758776417
32,5.0,-10.0,130.0,831.0787588251151
33,5.0,-10.0,134.0,852.6049320284297
34,5.0,-10.0,138.0,866.1643971169791
35,5.0,-10.0,142.0,874.1388839692264
36,5.0,-10.0,146.0,878.2431319580473
37,5.0,-10.0,150.0,880.4676472086287
38,5.0,-10.0,154.0,881.649479834145
39,5.0,-10.0,158.0,882.0373307129403
40,5.0,-10.0,162.0,882.4542794023969
41,5.0,-10.0,166.0,882.6507594217054
42,5.0,-10.0,170.0,882.5430363753078
43,5.0,-10.0,174.0,882.8143921402759
44,5.0,-10.0,178.0,882.8710928098944
45,5.0,-10.0,182.0,882.7365848206136
46,5.0,-10.0,186.0,882.9896268140677
47,5.0,-10.0,190.0,883.0025383442724
48,5.0,-10.0,194.0,882.913923343435
49,5.0,-10.0,198.0,883.1326202943195
50,5.0,-10.0,202.0,883.1151612396466
51,5.0,-10.0,206.0,883.068903858051
52,5.0,-10.0,210.0,883.2596031967958
53,5.0,-10.0,214.0,883.2166708000696
54,5.0,-10.0,218.0,883.2071577242513
55,5.0,-10.0,222.0,883.3739948067954
56,5.0,-10.0,226.0,883.3092614790306
57,5.0,-10.0,230.0,883.3314579975789
58,5.0,-10.0,234.0,883.4777631728878
59,5.0,-10.0,238.0,883.3942476769759
60,5.0,-10.0,242.0,883.4438522898865
61,5.0,-10.0,246.0,883.572440096595
62,5.0,-10.0,250.0,883.4726992151395
63,5.0,-10.0,254.0,883.5460013386374
64,5.0,-10.0,258.0,883.6592678313975
65,5.0,-10.0,262.0,883.5454880028497
66,5.0,-10.0,266.0,883.6392662039541
67,5.0,-10.0,270.0,883.7392677848616
68,5.0,-10.0,274.0,883.6133332815702
69,5.0,-10.0,278.0,883.7247729431624
70,5.0,-10.0,282.0,883.813287508628
71,5.0,-10.0,286.0,883.676833563664
72,5.0,-10.0,290.0,883.8034612328671
73,5.0,-10.0,294.0,883.8820361788661
74,5.0,-10.0,298.0,883.7364909566021
75,5.0,-10.0,302.0,883.876121397672
76,5.0,-10.0,306.0,883.9461117287584
77,5.0,-10.0,310.0,883.7927298221393
78,5.0,-10.0,314.0,883.9434229489228
79,5.0,-10.0,318.0,884.0060218377653
80,5.0,-10.0,322.0,883.8459112631341
81,5.0,-10.0,326.0,884.0059368202833
82,5.0,-10.0,330.0,884.0622003414035
83,5.0,-10.0,334.0,883.8963444874379
84,5.0,-10.0,338.0,884.064152866746
85,5.0,-10.0,342.0,884.1150201863353
86,5.0,-10.0,346.0,883.9442958070388
87,5.0,-10.0,350.0,884.1184937638449
88,5.0,-10.0,354.0,884.1648037505269
89,5.0,-10.0,358.0,883.9899958273243
90,5.0,-10.0,362.0,884.1693261423835
91,5.0,-10.0,366.0,884.2118311332065
92,5.0,-10.0,370.0,884.033645237354
93,5.0,-10.0,374.0,884.2169695795769
94,5.0,-10.0,378.0,884.2563468657884
95,5.0,-10.0,382.0,884.0754195087666
96,5.0,-10.0,386.0,884.2617039130944
97,5.0,-10.0,390.0,884.2985653838534
98,5.0,-10.0,394.0,884.1154727360072
99,5.0,-10.0,398.0,884.3037752319532
100,5.0,-10.0,402.0,884.3386755190741
101,5.0,-10.0,406.0,884.1539407955311
0,5.0,-12.0,2.0,7255.616503956816
1,5.0,-12.0,6.0,5923.01350167135
2,5.0,-12.0,10.0,6691.584303918894
3,5.0,-12.0,14.0,7229.478355906201
4,5.0,-12.0,18.0,7622.739681332623
5,5.0,-12.0,22.0,7895.6207773170145
6,5.0,-12.0,26.0,7930.185271493029
7,5.0,-12.0,30.0,6068.130538503149
8,5.0,-12.0,34.0,7864.420244288526
9,5.0,-12.0,38.0,3047.676817001878
10,5.0,-12.0,42.0,1781.5092029991777
11,5.0,-12.0,46.0,99.91504733006323
12,5.0,-12.0,50.0,85.15224383840713
13,5.0,-12.0,54.0,57.47836442643228
14,5.0,-12.0,58.0,18.552269614038664
15,5.0,-12.0,62.0,20.33477965213606
16,5.0,-12.0,66.0,32.83699265524411
17,5.0,-12.0,70.0,22.91517805460288
18,5.0,-12.0,74.0,11.484661658867434
19,5.0,-12.0,78.0,7.464003826410681
20,5.0,-12.0,82.0,8.20698024724844
21,5.0,-12.0,86.0,13.725797157364195
22,5.0,-12.0,90.0,62.7168678153021
23,5.0,-12.0,94.0,248.0387838097219
24,5.0,-12.0,98.0,1468.7585199080359
25,5.0,-12.0,102.0,2593.5267638881883
26,5.0,-12.0,106.0,7307.065666956507
27,5.0,-12.0,110.0,8644.387905507348
28,5.0,-12.0,114.0,8519.712755808692
29,5.0,-12.0,118.0,6487.309176864836
30,5.0,-12.0,122.0,6487.8159905557395
31,5.0,-12.0,126.0,8408.151447555016
32,5.0,-12.0,130.0,8345.029058224163
33,5.0,-12.0,134.0,8280.63062562168
34,5.0,-12.0,138.0,8213.269423794238
35,5.0,-12.0,142.0,8143.38992899884
36,5.0,-12.0,146.0,8072.688900716493
37,5.0,-12.0,150.0,7971.200628508374
38,5.0,-12.0,154.0,6598.070766511943
39,5.0,-12.0,158.0,6597.017359315316
40,5.0,-12.0,162.0,7769.55893209542
41,5.0,-12.0,166.0,7689.30861511379
42,5.0,-12.0,170.0,7608.750539830355
43,5.0,-12.0,174.0,7526.09082552981
44,5.0,-12.0,178.0,7441.718338613681
45,5.0,-12.0,182.0,7357.232161773946
46,5.0,-12.0,186.0,6498.248404688161
47,5.0,-12.0,190.0,7182.853768107513
48,5.0,-12.0,194.0,7094.9380671238105
49,5.0,-12.0,198.0,7005.244481877758
50,5.0,-12.0,202.0,6914.110114869073
51,5.0,-12.0,206.0,6510.457386108102
52,5.0,-12.0,210.0,6730.582045780916
53,5.0,-12.0,214.0,6498.663244716768
54,5.0,-12.0,218.0,6510.497082502792
55,5.0,-12.0,222.0,6447.8539594562735
56,5.0,-12.0,226.0,6511.476391121748
57,5.0,-12.0,230.0,6255.393822917496
58,5.0,-12.0,234.0,6157.916741692686
59,5.0,-12.0,238.0,6059.205853533968
60,5.0,-12.0,242.0,6497.699952922005
61,5.0,-12.0,246.0,6510.902502353469
62,5.0,-12.0,250.0,5760.745057222634
63,5.0,-12.0,254.0,6497.782694955906
64,5.0,-12.0,258.0,6498.432923624054
65,5.0,-12.0,262.0,6498.931911358699
66,5.0,-12.0,266.0,6510.668180644907
67,5.0,-12.0,270.0,5251.615336923381
68,5.0,-12.0,274.0,6498.946758194514
69,5.0,-12.0,278.0,6510.712336269068
70,5.0,-12.0,282.0,6510.86260245618
71,5.0,-12.0,286.0,6511.606395585816
72,5.0,-12.0,290.0,6510.756562140888
73,5.0,-12.0,294.0,6510.843468410341
74,5.0,-12.0,298.0,6511.618469726702
75,5.0,-12.0,302.0,6510.800684222677
76,5.0,-12.0,306.0,6510.821716902833
77,5.0,-12.0,310.0,6511.629156918828
78,5.0,-12.0,314.0,6510.844555079313
79,5.0,-12.0,318.0,6510.797486970478
80,5.0,-12.0,322.0,6511.638456841764
81,5.0,-12.0,326.0,6510.888048982258
82,5.0,-12.0,330.0,6510.77089742987
83,5.0,-12.0,334.0,6511.64636922203
84,5.0,-12.0,338.0,6510.931058056415
85,5.0,-12.0,342.0,6510.742050424872
86,5.0,-12.0,346.0,6511.652893825012
87,5.0,-12.0,350.0,6510.973489219641
88,5.0,-12.0,354.0,6510.711034252597
89,5.0,-12.0,358.0,6511.658030448548
90,5.0,-12.0,362.0,6511.015261730948
91,5.0,-12.0,366.0,6510.677925632929
92,5.0,-12.0,370.0,6511.6617789177335
93,5.0,-12.0,374.0,6511.056305210711
94,5.0,-12.0,378.0,6510.6427915487075
95,5.0,-12.0,382.0,6511.664139080735
96,5.0,-12.0,386.0,6511.096558030184
97,5.0,-12.0,390.0,6510.605690739082
98,5.0,-12.0,394.0,6511.665110805335
99,5.0,-12.0,398.0,6511.135965992338
100,5.0,-12.0,402.0,6510.56667493456
101,5.0,-12.0,406.0,6511.6646939761085
0,7.0,-8.0,2.0,1889.2572728070654
1,7.0,-8.0,6.0,594.242486366125
2,7.0,-8.0,10.0,337.54458842041817
3,7.0,-8.0,14.0,228.78715867933124
4,7.0,-8.0,18.0,169.84936195795234
5,7.0,-8.0,22.0,133.86825174730578
6,7.0,-8.0,26.0,110.70727808540799
7,7.0,-8.0,30.0,97.07215793738645
8,7.0,-8.0,34.0,90.4318446155221
9,7.0,-8.0,38.0,87.99112083560716
10,7.0,-8.0,42.0,80.38318992910803
11,7.0,-8.0,46.0,29.32386538853473
12,7.0,-8.0,50.0,12.322250008886959
13,7.0,-8.0,54.0,5.015631525791947
14,7.0,-8.0,58.0,8.27044580154997
15,7.0,-8.0,62.0,10.433726387139618
16,7.0,-8.0,66.0,9.657782657199565
17,7.0,-8.0,70.0,8.597832677853434
18,7.0,-8.0,74.0,6.17380270283418
19,7.0,-8.0,78.0,3.894867320276013
20,7.0,-8.0,82.0,3.325376165324534
21,7.0,-8.0,86.0,5.133496690335187
22,7.0,-8.0,90.0,8.003107234121275
23,7.0,-8.0,94.0,19.12752873954903
24,7.0,-8.0,98.0,37.092459261834954
25,7.0,-8.0,102.0,53.687224687095544
26,7.0,-8.0,106.0,66.30280518667793
27,7.0,-8.0,110.0,70.5823448855674
28,7.0,-8.0,114.0,67.22504228697592
29,7.0,-8.0,118.0,65.53293164526345
30,7.0,-8.0,122.0,65.49160097370071
31,7.0,-8.0,126.0,65.78115958567936
32,7.0,-8.0,130.0,66.08407945473013
33,7.0,-8.0,134.0,66.38607450153124
34,7.0,-8.0,138.0,66.68165893083238
35,7.0,-8.0,142.0,66.96761561957705
36,7.0,-8.0,146.0,67.26023763025594
37,7.0,-8.0,150.0,67.54547660987082
38,7.0,-8.0,154.0,67.81624092717345
39,7.0,-8.0,158.0,68.09333236942504
40,7.0,-8.0,162.0,68.34948315115888
41,7.0,-8.0,166.0,68.60725340617951
42,7.0,-8.0,170.0,68.85045619888211
43,7.0,-8.0,174.0,69.0882263427223
44,7.0,-8.0,178.0,69.31804387764167
45,7.0,-8.0,182.0,69.53865084077657
46,7.0,-8.0,186.0,69.75497485903071
47,7.0,-8.0,190.0,69.9610079980028
48,7.0,-8.0,194.0,70.16378520865089
49,7.0,-8.0,198.0,70.35751108513881
50,7.0,-8.0,202.0,70.54667773437993
51,7.0,-8.0,206.0,70.73006432452074
52,7.0,-8.0,210.0,70.90553817973218
53,7.0,-8.0,214.0,71.08029735031562
54,7.0,-8.0,218.0,71.24198225204697
55,7.0,-8.0,222.0,71.4096095419279
56,7.0,-8.0,226.0,71.55777384277877
57,7.0,-8.0,230.0,71.71920921895514
58,7.0,-8.0,234.0,71.86245888238159
59,7.0,-8.0,238.0,72.01014582675765
60,7.0,-8.0,242.0,72.14954195958096
61,7.0,-8.0,246.0,72.28333602340584
62,7.0,-8.0,250.0,72.41982037931356
63,7.0,-8.0,254.0,72.53962576451184
64,7.0,-8.0,258.0,72.67399619516392
65,7.0,-8.0,262.0,72.79234177552512
66,7.0,-8.0,266.0,72.91269080553361
67,7.0,-8.0,270.0,73.03026946986508
68,7.0,-8.0,274.0,73.13645699081759
69,7.0,-8.0,278.0,73.25389089152773
70,7.0,-8.0,282.0,73.35654465204185
71,7.0,-8.0,286.0,73.463638022606
72,7.0,-8.0,290.0,73.56714487201153
73,7.0,-8.0,294.0,73.65989983638387
74,7.0,-8.0,298.0,73.76472991929019
75,7.0,-8.0,302.0,73.8557831279828
76,7.0,-8.0,306.0,73.94960714094934
77,7.0,-8.0,310.0,74.04276147066236
78,7.0,-8.0,314.0,74.12262693769507
79,7.0,-8.0,318.0,74.21767259759326
80,7.0,-8.0,322.0,74.30030996998764
81,7.0,-8.0,326.0,74.38074014239248
82,7.0,-8.0,330.0,74.46645627689985
83,7.0,-8.0,334.0,74.5395823211639
84,7.0,-8.0,338.0,74.62124487692245
85,7.0,-8.0,342.0,74.69798701156347
86,7.0,-8.0,346.0,74.76484224961595
87,7.0,-8.0,350.0,74.84543983207769
88,7.0,-8.0,354.0,74.91401853840651
89,7.0,-8.0,358.0,74.98207548199458
90,7.0,-8.0,362.0,75.0549461949094
91,7.0,-8.0,366.0,75.11607459606238
92,7.0,-8.0,370.0,75.18537147546141
93,7.0,-8.0,374.0,75.25117708576859
94,7.0,-8.0,378.0,75.3054854326249
95,7.0,-8.0,382.0,75.3760429503646
96,7.0,-8.0,386.0,75.43536990028
97,7.0,-8.0,390.0,75.49075760110946
98,7.0,-8.0,394.0,75.55524270181864
99,7.0,-8.0,398.0,75.60861280050737
100,7.0,-8.0,402.0,75.66517423351368
101,7.0,-8.0,406.0,75.72398723397563
0,7.0,-10.0,2.0,4102.1436702303245
1,7.0,-10.0,6.0,1339.6184542452818
2,7.0,-10.0,10.0,835.9774685432169
3,7.0,-10.0,14.0,647.4884777111138
4,7.0,-10.0,18.0,563.7128868458615
5,7.0,-10.0,22.0,532.250910289692
6,7.0,-10.0,26.0,548.5361413670347
7,7.0,-10.0,30.0,580.0672973757579
8,7.0,-10.0,34.0,421.91537560307546
9,7.0,-10.0,38.0,226.53663085053094
10,7.0,-10.0,42.0,206.58843108903557
11,7.0,-10.0,46.0,66.25821805452685
12,7.0,-10.0,50.0,21.43226607205366
13,7.0,-10.0,54.0,8.800110771960723
14,7.0,-10.0,58.0,11.151437426964995
15,7.0,-10.0,62.0,14.268744952031408
16,7.0,-10.0,66.0,13.907780862804264
17,7.0,-10.0,70.0,11.9747818801756
18,7.0,-10.0,74.0,8.019654153503186
19,7.0,-10.0,78.0,4.422770725699021
20,7.0,-10.0,82.0,4.331445272324941
21,7.0,-10.0,86.0,6.974583385271327
22,7.0,-10.0,90.0,16.10870999244702
23,7.0,-10.0,94.0,59.76669450146965
24,7.0,-10.0,98.0,87.21114902869127
25,7.0,-10.0,102.0,199.10522125949666
26,7.0,-10.0,106.0,338.8105257719995
27,7.0,-10.0,110.0,497.70439687972413
28,7.0,-10.0,114.0,496.028552259151
29,7.0,-10.0,118.0,462.43595897338867
30,7.0,-10.0,122.0,451.96120193671464
31,7.0,-10.0,126.0,450.95209090216883
32,7.0,-10.0,130.0,451.74296346406277
33,7.0,-10.0,134.0,452.5652883297462
34,7.0,-10.0,138.0,453.06474660294424
35,7.0,-10.0,142.0,453.4282419248634
36,7.0,-10.0,146.0,453.7029435949905
37,7.0,-10.0,150.0,453.89890033165346
38,7.0,-10.0,154.0,454.141966893942
39,7.0,-10.0,158.0,454.2824026046248
40,7.0,-10.0,162.0,454.5108361853886
41,7.0,-10.0,166.0,454.67359916427324
42,7.0,-10.0,170.0,454.8331496777743
43,7.0,-10.0,174.0,455.02433870624424
44,7.0,-10.0,178.0,455.1288007126364
45,7.0,-10.0,182.0,455.3340035038113
46,7.0,-10.0,186.0,455.4722950027473
47,7.0,-10.0,190.0,455.60057116266364
48,7.0,-10.0,194.0,455.77434945468065
49,7.0,-10.0,198.0,455.8676954360302
50,7.0,-10.0,202.0,456.03280805066663
51,7.0,-10.0,206.0,456.1649213554508
52,7.0,-10.0,210.0,456.245841390204
53,7.0,-10.0,214.0,456.4178514159737
54,7.0,-10.0,218.0,456.5139374834607
55,7.0,-10.0,222.0,456.6248303808564
56,7.0,-10.0,226.0,456.7632112158237
57,7.0,-10.0,230.0,456.8278943334376
58,7.0,-10.0,234.0,456.96593398866366
59,7.0,-10.0,238.0,457.07488238840534
60,7.0,-10.0,242.0,457.1208278316833
61,7.0,-10.0,246.0,457.2746890804829
62,7.0,-10.0,250.0,457.3577089050136
63,7.0,-10.0,254.0,457.42615836119126
64,7.0,-10.0,258.0,457.5556024491982
65,7.0,-10.0,262.0,457.61564729667094
66,7.0,-10.0,266.0,457.7046357673666
67,7.0,-10.0,270.0,457.812379676968
68,7.0,-10.0,274.0,457.85196098193325
69,7.0,-10.0,278.0,457.9597309822955
70,7.0,-10.0,282.0,458.04809560901845
71,7.0,-10.0,286.0,458.06936567292604
72,7.0,-10.0,290.0,458.1943404392176
73,7.0,-10.0,294.0,458.2653230752012
74,7.0,-10.0,298.0,458.28995000593983
75,7.0,-10.0,302.0,458.4109002113256
76,7.0,-10.0,306.0,458.46623132437026
77,7.0,-10.0,310.0,458.50542071976116
78,7.0,-10.0,314.0,458.6114739786704
79,7.0,-10.0,318.0,458.65266217174866
80,7.0,-10.0,322.0,458.70525361751857
81,7.0,-10.0,326.0,458.79782156676214
82,7.0,-10.0,330.0,458.8261895323154
83,7.0,-10.0,334.0,458.8911288496141
84,7.0,-10.0,338.0,458.97145288525076
85,7.0,-10.0,342.0,458.98816642084137
86,7.0,-10.0,346.0,459.0644934822248
87,7.0,-10.0,350.0,459.13367077065664
88,7.0,-10.0,354.0,459.1397623926169
89,7.0,-10.0,358.0,459.2266005617107
90,7.0,-10.0,362.0,459.2856053078748
91,7.0,-10.0,366.0,459.28199361876983
92,7.0,-10.0,370.0,459.3785405772847
93,7.0,-10.0,374.0,459.42824154434413
94,7.0,-10.0,378.0,459.4182007341031
95,7.0,-10.0,382.0,459.5212669935462
96,7.0,-10.0,386.0,459.56244203472875
97,7.0,-10.0,390.0,459.56073556227574
98,7.0,-10.0,394.0,459.6556171171814
99,7.0,-10.0,398.0,459.68896530717217
100,7.0,-10.0,402.0,459.69496813790363
101,7.0,-10.0,406.0,459.78232926315485
0,7.0,-12.0,2.0,5447.481385367088
1,7.0,-12.0,6.0,3625.8956000907033
2,7.0,-12.0,10.0,3134.5126512083825
3,7.0,-12.0,14.0,2812.4344384203664
4,7.0,-12.0,18.0,3080.8341333978096
5,7.0,-12.0,22.0,3068.215269105682
6,7.0,-12.0,26.0,3478.3837280295243
7,7.0,-12.0,30.0,3827.389771018552
8,7.0,-12.0,34.0,2585.1920008298207
9,7.0,-12.0,38.0,1496.1138701914547
10,7.0,-12.0,42.0,795.1635012235378
11,7.0,-12.0,46.0,270.6179163970345
12,7.0,-12.0,50.0,73.98938698358108
13,7.0,-12.0,54.0,46.2820547996955
14,7.0,-12.0,58.0,29.837788986606604
15,7.0,-12.0,62.0,20.66369981663634
16,7.0,-12.0,66.0,18.63269655783999
17,7.0,-12.0,70.0,14.106766354560007
18,7.0,-12.0,74.0,13.365298055135177
19,7.0,-12.0,78.0,13.248648330736401
20,7.0,-12.0,82.0,24.235656348207968
21,7.0,-12.0,86.0,30.28738989694162
22,7.0,-12.0,90.0,41.13597580033703
23,7.0,-12.0,94.0,70.9447248875346
24,7.0,-12.0,98.0,608.0343655530788
25,7.0,-12.0,102.0,674.5315930703154
26,7.0,-12.0,106.0,1692.0543197859445
27,7.0,-12.0,110.0,3544.5730754812225
28,7.0,-12.0,114.0,3991.2631117391115
29,7.0,-12.0,118.0,3934.0567266469357
30,7.0,-12.0,122.0,3238.429233258048
31,7.0,-12.0,126.0,3873.627205739622
32,7.0,-12.0,130.0,3835.3931886109626
33,7.0,-12.0,134.0,3772.8346164317436
34,7.0,-12.0,138.0,3706.093601880675
35,7.0,-12.0,142.0,3637.0490910280623
36,7.0,-12.0,146.0,3566.210292251103
37,7.0,-12.0,150.0,3493.019900022314
38,7.0,-12.0,154.0,3418.5908699953998
39,7.0,-12.0,158.0,3342.3687117211207
40,7.0,-12.0,162.0,3264.3376956633724
41,7.0,-12.0,166.0,3184.862710450273
42,7.0,-12.0,170.0,3104.0408229075506
43,7.0,-12.0,174.0,3021.63399926071
44,7.0,-12.0,178.0,2938.0324773171005
45,7.0,-12.0,182.0,2853.233894823334
46,7.0,-12.0,186.0,2767.031020362329
47,7.0,-12.0,190.0,2679.8362438552863
48,7.0,-12.0,194.0,2591.5669378726225
49,7.0,-12.0,198.0,2502.0431973429518
50,7.0,-12.0,202.0,2453.6327623070515
51,7.0,-12.0,206.0,2545.893811770033
52,7.0,-12.0,210.0,2638.5959873488555
53,7.0,-12.0,214.0,2732.214808294189
54,7.0,-12.0,218.0,2826.6917712190498
55,7.0,-12.0,222.0,2920.8715759530787
56,7.0,-12.0,226.0,3014.26742481338
57,7.0,-12.0,230.0,3104.2992983799354
58,7.0,-12.0,234.0,3184.8024063634816
59,7.0,-12.0,238.0,3248.1212793038617
60,7.0,-12.0,242.0,3288.582466007347
61,7.0,-12.0,246.0,3308.777897603012
62,7.0,-12.0,250.0,3317.567062254453
63,7.0,-12.0,254.0,3321.1962580084105
64,7.0,-12.0,258.0,3322.260810759867
65,7.0,-12.0,262.0,3322.7878091529533
66,7.0,-12.0,266.0,3323.2559104836
67,7.0,-12.0,270.0,3323.002048588665
68,7.0,-12.0,274.0,3323.093347046246
69,7.0,-12.0,278.0,3323.3028741274507
70,7.0,-12.0,282.0,3323.0769887532792
71,7.0,-12.0,286.0,3323.1540356012997
72,7.0,-12.0,290.0,3323.346608518755
73,7.0,-12.0,294.0,3323.1165925434693
74,7.0,-12.0,298.0,3323.1985199321207
75,7.0,-12.0,302.0,3323.3874554993663
76,7.0,-12.0,306.0,3323.1546239671566
77,7.0,-12.0,310.0,3323.2391504300012
78,7.0,-12.0,314.0,3323.425704617317
79,7.0,-12.0,318.0,3323.191220053387
80,7.0,-12.0,322.0,3323.276317506044
81,7.0,-12.0,326.0,3323.4616027865695
82,7.0,-12.0,330.0,3323.226497899701
83,7.0,-12.0,334.0,3323.3103554649274
84,7.0,-12.0,338.0,3323.495361856461
85,7.0,-12.0,342.0,3323.260558168742
86,7.0,-12.0,346.0,3323.3415522344485
87,7.0,-12.0,350.0,3323.527164623123
88,7.0,-12.0,354.0,3323.293487874028
89,7.0,-12.0,358.0,3323.3701571379647
90,7.0,-12.0,362.0,3323.557169644705
91,7.0,-12.0,366.0,3323.325362617344
92,7.0,-12.0,370.0,3323.3963871548085
93,7.0,-12.0,374.0,3323.585515129826
94,7.0,-12.0,378.0,3323.3562484002377
95,7.0,-12.0,382.0,3323.4204320004324
96,7.0,-12.0,386.0,3323.612322100909
97,7.0,-12.0,390.0,3323.38620310097
98,7.0,-12.0,394.0,3323.4424582782353
99,7.0,-12.0,398.0,3323.63769698489
100,7.0,-12.0,402.0,3323.415277686945
101,7.0,-12.0,406.0,3323.462612895198
0,9.0,-8.0,2.0,1727.1108040126521
1,9.0,-8.0,6.0,541.9690984434172
2,9.0,-8.0,10.0,306.66861556175314
3,9.0,-8.0,14.0,206.10331229302705
4,9.0,-8.0,18.0,150.94006162988975
5,9.0,-8.0,22.0,116.92126660089306
6,9.0,-8.0,26.0,96.05555744812754
7,9.0,-8.0,30.0,86.49257546989159
8,9.0,-8.0,34.0,85.25136435019562
9,9.0,-8.0,38.0,82.195087043542
10,9.0,-8.0,42.0,59.283542025065024
11,9.0,-8.0,46.0,19.995457478108296
12,9.0,-8.0,50.0,9.599208274652415
13,9.0,-8.0,54.0,4.954028380053066
14,9.0,-8.0,58.0,6.050214651239749
15,9.0,-8.0,62.0,6.682933082384612
16,9.0,-8.0,66.0,6.743730499544132
17,9.0,-8.0,70.0,5.945774439022511
18,9.0,-8.0,74.0,4.343960316307277
19,9.0,-8.0,78.0,3.2600721174727454
20,9.0,-8.0,82.0,2.3622565464126666
21,9.0,-8.0,86.0,3.7160491329670307
22,9.0,-8.0,90.0,6.843904868917061
23,9.0,-8.0,94.0,13.693991280071831
24,9.0,-8.0,98.0,28.06758709456356
25,9.0,-8.0,102.0,40.69488794209553
26,9.0,-8.0,106.0,45.25495657382685
27,9.0,-8.0,110.0,46.92673126752382
28,9.0,-8.0,114.0,45.87690754831053
29,9.0,-8.0,118.0,43.92248481144602
30,9.0,-8.0,122.0,43.23793096569652
31,9.0,-8.0,126.0,43.40006123748138
32,9.0,-8.0,130.0,43.77966336633634
33,9.0,-8.0,134.0,44.17459763890497
34,9.0,-8.0,138.0,44.5571538725673
35,9.0,-8.0,142.0,44.93080860559592
36,9.0,-8.0,146.0,45.29661821818392
37,9.0,-8.0,150.0,45.65387017632524
38,9.0,-8.0,154.0,46.00106078561806
39,9.0,-8.0,158.0,46.33661018488957
40,9.0,-8.0,162.0,46.665194155043174
41,9.0,-8.0,166.0,46.982575650444545
42,9.0,-8.0,170.0,47.28638731168066
43,9.0,-8.0,174.0,47.58119997280761
44,9.0,-8.0,178.0,47.867142769444
45,9.0,-8.0,182.0,48.13936332708535
46,9.0,-8.0,186.0,48.40621885546009
47,9.0,-8.0,190.0,48.66221140865432
48,9.0,-8.0,194.0,48.90805467119684
49,9.0,-8.0,198.0,49.149119131648774
50,9.0,-8.0,202.0,49.37680780333867
51,9.0,-8.0,206.0,49.60377405027562
52,9.0,-8.0,210.0,49.817786472575364
53,9.0,-8.0,214.0,50.02933154167722
54,9.0,-8.0,218.0,50.230550046046936
55,9.0,-8.0,222.0,50.428497517123226
56,9.0,-8.0,226.0,50.617665686307056
57,9.0,-8.0,230.0,50.80360351986446
58,9.0,-8.0,234.0,50.9813512724285
59,9.0,-8.0,238.0,51.15666910512133
60,9.0,-8.0,242.0,51.32353290795191
61,9.0,-8.0,246.0,51.48945250919208
62,9.0,-8.0,250.0,51.64589162346027
63,9.0,-8.0,254.0,51.80349184981166
64,9.0,-8.0,258.0,51.95052029563332
65,9.0,-8.0,262.0,52.100138794658065
66,9.0,-8.0,266.0,52.240360209579514
67,9.0,-8.0,270.0,52.380586247508695
68,9.0,-8.0,274.0,52.51479514317601
69,9.0,-8.0,278.0,52.64589125402441
70,9.0,-8.0,282.0,52.77479852982104
71,9.0,-8.0,286.0,52.8969940627344
72,9.0,-8.0,290.0,53.021237804006205
73,9.0,-8.0,294.0,53.13700388453159
74,9.0,-8.0,298.0,53.254888686674875
75,9.0,-8.0,302.0,53.36691508958945
76,9.0,-8.0,306.0,53.47644722919651
77,9.0,-8.0,310.0,53.58522162407802
78,9.0,-8.0,314.0,53.68654001567943
79,9.0,-8.0,318.0,53.792504375574445
80,9.0,-8.0,322.0,53.89107392752528
81,9.0,-8.0,326.0,53.98928864336867
82,9.0,-8.0,330.0,54.08570398197728
83,9.0,-8.0,334.0,54.176050845218455
84,9.0,-8.0,338.0,54.27065733425962
85,9.0,-8.0,342.0,54.35845175018083
86,9.0,-8.0,346.0,54.446337314626426
87,9.0,-8.0,350.0,54.53284482162516
88,9.0,-8.0,354.0,54.61311222092744
89,9.0,-8.0,358.0,54.69860625892648
90,9.0,-8.0,362.0,54.77775829403325
91,9.0,-8.0,366.0,54.85605063350245
92,9.0,-8.0,370.0,54.93461040840173
93,9.0,-8.0,374.0,55.007060167223756
94,9.0,-8.0,378.0,55.083653442280365
95,9.0,-8.0,382.0,55.15588225501325
96,9.0,-8.0,386.0,55.22513631248778
97,9.0,-8.0,390.0,55.297335932983934
98,9.0,-8.0,394.0,55.36376759122936
99,9.0,-8.0,398.0,55.43163645080914
100,9.0,-8.0,402.0,55.49834440203277
101,9.0,-8.0,406.0,55.24751488874862
0,9.0,-10.0,2.0,4698.840032292739
1,9.0,-10.0,6.0,1487.0360909942524
2,9.0,-10.0,10.0,866.1801578251158
3,9.0,-10.0,14.0,612.4221657533412
4,9.0,-10.0,18.0,488.2047080671575
5,9.0,-10.0,22.0,430.87792603892404
6,9.0,-10.0,26.0,409.9186375384514
7,9.0,-10.0,30.0,369.6418121115798
8,9.0,-10.0,34.0,311.63236489992295
9,9.0,-10.0,38.0,317.6865963079304
10,9.0,-10.0,42.0,254.1752270319912
11,9.0,-10.0,46.0,50.363319372570615
12,9.0,-10.0,50.0,29.327780389096425
13,9.0,-10.0,54.0,14.530699424814042
14,9.0,-10.0,58.0,8.890281181959026
15,9.0,-10.0,62.0,10.3959252113758
16,9.0,-10.0,66.0,9.188946241952012
17,9.0,-10.0,70.0,8.16548923645114
18,9.0,-10.0,74.0,6.016738166706836
19,9.0,-10.0,78.0,3.87281386645284
20,9.0,-10.0,82.0,3.084481411968998
21,9.0,-10.0,86.0,11.6573632365649
22,9.0,-10.0,90.0,13.291705641946638
23,9.0,-10.0,94.0,48.96321653296107
24,9.0,-10.0,98.0,88.42424956099019
25,9.0,-10.0,102.0,162.46212892084256
26,9.0,-10.0,106.0,199.6982320980689
27,9.0,-10.0,110.0,269.5388523757796
28,9.0,-10.0,114.0,321.453558258132
29,9.0,-10.0,118.0,313.6671373146657
30,9.0,-10.0,122.0,293.68507567645065
31,9.0,-10.0,126.0,283.7343535873686
32,9.0,-10.0,130.0,280.60508102915367
33,9.0,-10.0,134.0,280.0461605115482
34,9.0,-10.0,138.0,280.2600054866095
35,9.0,-10.0,142.0,280.67415558506735
36,9.0,-10.0,146.0,281.1022286586791
37,9.0,-10.0,150.0,281.50825892725317
38,9.0,-10.0,154.0,281.9236140246611
39,9.0,-10.0,158.0,282.29843237981083
40,9.0,-10.0,162.0,282.69891912284976
41,9.0,-10.0,166.0,283.04885691467507
42,9.0,-10.0,170.0,283.4308041017726
43,9.0,-10.0,174.0,283.7590595952637
44,9.0,-10.0,178.0,284.1192602669513
45,9.0,-10.0,182.0,284.4293602030198
46,9.0,-10.0,186.0,284.7657525821742
47,9.0,-10.0,190.0,285.06124700501215
48,9.0,-10.0,194.0,285.37229724677144
49,9.0,-10.0,198.0,285.6564262001748
50,9.0,-10.0,202.0,285.94084170655856
51,9.0,-10.0,206.0,286.2164707799233
52,9.0,-10.0,210.0,286.4731057756322
53,9.0,-10.0,214.0,286.7427542507885
54,9.0,-10.0,218.0,286.9705767746327
55,9.0,-10.0,222.0,287.23646349273315
56,9.0,-10.0,226.0,287.46062014770536
57,9.0,-10.0,230.0,287.69862619396946
58,9.0,-10.0,234.0,287.9225323640013
59,9.0,-10.0,238.0,288.13013689302284
60,9.0,-10.0,242.0,288.3553767304791
61,9.0,-10.0,246.0,288.5426199158075
62,9.0,-10.0,250.0,288.75976789959657
63,9.0,-10.0,254.0,288.95093098709816
64,9.0,-10.0,258.0,289.1362492390276
65,9.0,-10.0,262.0,289.332494097137
66,9.0,-10.0,266.0,289.49356857912943
67,9.0,-10.0,270.0,289.68767790743533
68,9.0,-10.0,274.0,289.85578952212234
69,9.0,-10.0,278.0,290.0168137845676
70,9.0,-10.0,282.0,290.19283371254176
71,9.0,-10.0,286.0,290.3358738278076
72,9.0,-10.0,290.0,290.50492037098127
73,9.0,-10.0,294.0,290.65738038501115
74,9.0,-10.0,298.0,290.7922504838474
75,9.0,-10.0,302.0,290.95479536296233
76,9.0,-10.0,306.0,291.0860932272668
77,9.0,-10.0,310.0,291.22824607179484
78,9.0,-10.0,314.0,291.3708198177383
79,9.0,-10.0,318.0,291.48302674145725
80,9.0,-10.0,322.0,291.63221687772574
81,9.0,-10.0,326.0,291.75672972899457
82,9.0,-10.0,330.0,291.870355026262
83,9.0,-10.0,334.0,292.00761262513817
84,9.0,-10.0,338.0,292.1157305351947
85,9.0,-10.0,342.0,292.23570898131743
86,9.0,-10.0,346.0,292.35740446327816
87,9.0,-10.0,350.0,292.450588071906
88,9.0,-10.0,354.0,292.5766732690463
89,9.0,-10.0,358.0,292.68416517511133
90,9.0,-10.0,362.0,292.7735476490084
91,9.0,-10.0,366.0,292.89564500578746
92,9.0,-10.0,370.0,292.9901337772618
93,9.0,-10.0,374.0,293.0850193345505
94,9.0,-10.0,378.0,293.19471691226477
95,9.0,-10.0,382.0,293.2772679440443
96,9.0,-10.0,386.0,293.3774285831809
97,9.0,-10.0,390.0,293.4757241436666
98,9.0,-10.0,394.0,293.5472868514727
99,9.0,-10.0,398.0,293.6524979211529
100,9.0,-10.0,402.0,293.7402827322771
101,9.0,-10.0,406.0,293.80756472127734
0,9.0,-12.0,2.0,6322.540825981087
1,9.0,-12.0,6.0,2741.4155892652875
2,9.0,-12.0,10.0,2285.0435429148347
3,9.0,-12.0,14.0,2196.923068763119
4,9.0,-12.0,18.0,1926.2623547831174
5,9.0,-12.0,22.0,1532.9388756802543
6,9.0,-12.0,26.0,1613.0230471160103
7,9.0,-12.0,30.0,1285.5624466127417
8,9.0,-12.0,34.0,920.9571210242717
9,9.0,-12.0,38.0,459.93897850979266
10,9.0,-12.0,42.0,359.279309958312
11,9.0,-12.0,46.0,177.36696286234533
12,9.0,-12.0,50.0,50.11624848403686
13,9.0,-12.0,54.0,22.73030570358081
14,9.0,-12.0,58.0,26.20281845707515
15,9.0,-12.0,62.0,18.51437260091413
16,9.0,-12.0,66.0,11.049386679795337
17,9.0,-12.0,70.0,10.993194090763003
18,9.0,-12.0,74.0,9.398085474527562
19,9.0,-12.0,78.0,14.718774189426753
20,9.0,-12.0,82.0,11.979737327119988
21,9.0,-12.0,86.0,15.137571409631612
22,9.0,-12.0,90.0,60.7718358294087
23,9.0,-12.0,94.0,165.29072832259536
24,9.0,-12.0,98.0,246.70199917976382
25,9.0,-12.0,102.0,327.7818926749973
26,9.0,-12.0,106.0,655.9332319326161
27,9.0,-12.0,110.0,1122.8538734544043
28,9.0,-12.0,114.0,1830.004283930717
29,9.0,-12.0,118.0,2000.364417907657
30,9.0,-12.0,122.0,1964.4634347335134
31,9.0,-12.0,126.0,1911.3938444323544
32,9.0,-12.0,130.0,1873.8500754471136
33,9.0,-12.0,134.0,1876.546545100314
34,9.0,-12.0,138.0,1823.868249132881
35,9.0,-12.0,142.0,1757.4663622549836
36,9.0,-12.0,146.0,1687.2147827719332
37,9.0,-12.0,150.0,1614.8881432606877
38,9.0,-12.0,154.0,1540.701388263745
39,9.0,-12.0,158.0,1509.0564785413487
40,9.0,-12.0,162.0,1587.1976685670163
41,9.0,-12.0,166.0,1666.0324369121493
42,9.0,-12.0,170.0,1744.0643224074047
43,9.0,-12.0,174.0,1818.6348750545355
44,9.0,-12.0,178.0,1885.7460992449628
45,9.0,-12.0,182.0,1939.0511829899103
46,9.0,-12.0,186.0,1974.840298060565
47,9.0,-12.0,190.0,1995.1481508207446
48,9.0,-12.0,194.0,2004.9442763068737
49,9.0,-12.0,198.0,2009.308693982838
50,9.0,-12.0,202.0,2011.300021557351
51,9.0,-12.0,206.0,2012.0382049923069
52,9.0,-12.0,210.0,2012.4130784148317
53,9.0,-12.0,214.0,2012.6624729087503
54,9.0,-12.0,218.0,2012.6676922667616
55,9.0,-12.0,222.0,2012.798386780983
56,9.0,-12.0,226.0,2012.9062993151801
57,9.0,-12.0,230.0,2012.8407535846823
58,9.0,-12.0,234.0,2012.9889401154035
59,9.0,-12.0,238.0,2013.065412128333
60,9.0,-12.0,242.0,2012.9744418958614
61,9.0,-12.0,246.0,2013.1524840385757
62,9.0,-12.0,250.0,2013.2069637860268
63,9.0,-12.0,254.0,2013.100834137606
64,9.0,-12.0,258.0,2013.3011046885706
65,9.0,-12.0,262.0,2013.3365539417878
66,9.0,-12.0,266.0,2013.2549998439476
67,9.0,-12.0,270.0,2013.4372338889707
68,9.0,-12.0,274.0,2013.4559099060623
69,9.0,-12.0,278.0,2013.3961768928798
70,9.0,-12.0,282.0,2013.5624761654672
71,9.0,-12.0,286.0,2013.5663129442974
72,9.0,-12.0,290.0,2013.5259649671866
73,9.0,-12.0,294.0,2013.6781487769142
74,9.0,-12.0,298.0,2013.6688285467883
75,9.0,-12.0,302.0,2013.6457058877336
76,9.0,-12.0,306.0,2013.7853619671325
77,9.0,-12.0,310.0,2013.7643573763085
78,9.0,-12.0,314.0,2013.7565363550634
79,9.0,-12.0,318.0,2013.885058388592
80,9.0,-12.0,322.0,2013.8536657305017
81,9.0,-12.0,326.0,2013.8594257033421
82,9.0,-12.0,330.0,2013.9780435834314
83,9.0,-12.0,334.0,2013.9374097804448
84,9.0,-12.0,338.0,2013.9552056099099
85,9.0,-12.0,342.0,2014.0650100347236
86,9.0,-12.0,346.0,2014.016154667752
87,9.0,-12.0,350.0,2014.0445936937488
88,9.0,-12.0,354.0,2014.146556329713
89,9.0,-12.0,358.0,2014.0903897609878
90,9.0,-12.0,362.0,2014.1282124201111
91,9.0,-12.0,366.0,2014.2232025525377
92,9.0,-12.0,370.0,2014.1605409431122
93,9.0,-12.0,374.0,2014.2066043658872
94,9.0,-12.0,378.0,2014.2954027450205
95,9.0,-12.0,382.0,2014.2269805830879
96,9.0,-12.0,386.0,2014.2802446374649
97,9.0,-12.0,390.0,2014.3635550670751
98,9.0,-12.0,394.0,2014.290035685164
99,9.0,-12.0,398.0,2014.349551042143
100,9.0,-12.0,402.0,2014.4280101372349
101,9.0,-12.0,406.0,2014.3499945931158
